digraph Tree {
node [shape=box, style="filled, rounded", color="black", fontname="helvetica"] ;
edge [fontname="helvetica"] ;
0 [label="NumOfEventsInJourney <= 0.05\ngini = 0.5\nsamples = 408490\nvalue = [322924.73, 321720.97]", fillcolor="#fffffe"] ;
1 [label="NumView <= 0.06\ngini = 0.5\nsamples = 396223\nvalue = [313826.77, 275139.05]", fillcolor="#fcefe7"] ;
0 -> 1 [labeldistance=2.5, labelangle=45, headlabel="True"] ;
2 [label="InsessionView <= 0.01\ngini = 0.08\nsamples = 20390\nvalue = [12480.99, 275139.05]", fillcolor="#42a1e6"] ;
1 -> 2 ;
3 [label="weekday <= 0.92\ngini = 0.08\nsamples = 18768\nvalue = [11403.51, 258700.49]", fillcolor="#42a1e6"] ;
2 -> 3 ;
4 [label="timeOfDay <= 0.75\ngini = 0.09\nsamples = 14747\nvalue = [9199.37, 188198.13]", fillcolor="#43a2e6"] ;
3 -> 4 ;
5 [label="gini = 0.08\nsamples = 12461\nvalue = [7653.38, 167155.34]", fillcolor="#42a1e6"] ;
4 -> 5 ;
6 [label="gini = 0.13\nsamples = 2286\nvalue = [1545.99, 21042.8]", fillcolor="#48a4e7"] ;
4 -> 6 ;
7 [label="timeOfDay <= 0.08\ngini = 0.06\nsamples = 4021\nvalue = [2204.14, 70502.36]", fillcolor="#3fa0e6"] ;
3 -> 7 ;
8 [label="gini = 0.1\nsamples = 370\nvalue = [223.1, 4208.56]", fillcolor="#43a2e6"] ;
7 -> 8 ;
9 [label="gini = 0.06\nsamples = 3651\nvalue = [1981.04, 66293.8]", fillcolor="#3fa0e6"] ;
7 -> 9 ;
10 [label="NumCart <= 0.06\ngini = 0.12\nsamples = 1622\nvalue = [1077.48, 16438.56]", fillcolor="#46a3e7"] ;
2 -> 10 ;
11 [label="gini = 0.0\nsamples = 284\nvalue = [0.0, 16438.56]", fillcolor="#399de5"] ;
10 -> 11 ;
12 [label="weekday <= 0.08\ngini = 0.0\nsamples = 1338\nvalue = [1077.48, 0.0]", fillcolor="#e58139"] ;
10 -> 12 ;
13 [label="gini = 0.0\nsamples = 80\nvalue = [68.96, 0.0]", fillcolor="#e58139"] ;
12 -> 13 ;
14 [label="gini = 0.0\nsamples = 1258\nvalue = [1008.52, 0.0]", fillcolor="#e58139"] ;
12 -> 14 ;
15 [label="gini = -0.0\nsamples = 375833\nvalue = [301345.78, 0.0]", fillcolor="#e58139"] ;
1 -> 15 ;
16 [label="NumOfEventsInJourney <= 0.14\ngini = 0.27\nsamples = 12267\nvalue = [9097.96, 46581.92]", fillcolor="#60b0ea"] ;
0 -> 16 [labeldistance=2.5, labelangle=-45, headlabel="False"] ;
17 [label="interactionTime <= 0.0\ngini = 0.29\nsamples = 11223\nvalue = [8386.58, 38272.71]", fillcolor="#64b2eb"] ;
16 -> 17 ;
18 [label="weekday <= 0.75\ngini = 0.18\nsamples = 425\nvalue = [314.37, 35.97]", fillcolor="#e88f50"] ;
17 -> 18 ;
19 [label="NumView <= 0.06\ngini = 0.27\nsamples = 254\nvalue = [183.55, 35.97]", fillcolor="#ea9a60"] ;
18 -> 19 ;
20 [label="gini = 0.49\nsamples = 45\nvalue = [29.41, 35.97]", fillcolor="#dbedfa"] ;
19 -> 20 ;
21 [label="gini = -0.0\nsamples = 209\nvalue = [154.14, 0.0]", fillcolor="#e58139"] ;
19 -> 21 ;
22 [label="NumCart <= 0.06\ngini = 0.0\nsamples = 171\nvalue = [130.82, 0.0]", fillcolor="#e58139"] ;
18 -> 22 ;
23 [label="gini = 0.0\nsamples = 91\nvalue = [72.0, 0.0]", fillcolor="#e58139"] ;
22 -> 23 ;
24 [label="gini = 0.0\nsamples = 80\nvalue = [58.82, 0.0]", fillcolor="#e58139"] ;
22 -> 24 ;
25 [label="weekday <= 0.92\ngini = 0.29\nsamples = 10798\nvalue = [8072.21, 38236.74]", fillcolor="#63b2ea"] ;
17 -> 25 ;
26 [label="maxPrice <= 0.01\ngini = 0.31\nsamples = 8892\nvalue = [6666.16, 28308.86]", fillcolor="#68b4eb"] ;
25 -> 26 ;
27 [label="gini = 0.49\nsamples = 191\nvalue = [142.48, 107.91]", fillcolor="#f9e0cf"] ;
26 -> 27 ;
28 [label="gini = 0.31\nsamples = 8701\nvalue = [6523.68, 28200.94]", fillcolor="#67b4eb"] ;
26 -> 28 ;
29 [label="maxPrice <= 0.65\ngini = 0.22\nsamples = 1906\nvalue = [1406.04, 9927.88]", fillcolor="#55abe9"] ;
25 -> 29 ;
30 [label="gini = 0.22\nsamples = 1895\nvalue = [1395.9, 9927.88]", fillcolor="#55abe9"] ;
29 -> 30 ;
31 [label="gini = 0.0\nsamples = 11\nvalue = [10.14, 0.0]", fillcolor="#e58139"] ;
29 -> 31 ;
32 [label="maxPrice <= 0.0\ngini = 0.15\nsamples = 1044\nvalue = [711.39, 8309.21]", fillcolor="#4aa5e7"] ;
16 -> 32 ;
33 [label="gini = 0.0\nsamples = 7\nvalue = [5.07, 0.0]", fillcolor="#e58139"] ;
32 -> 33 ;
34 [label="NumCart <= 0.06\ngini = 0.14\nsamples = 1037\nvalue = [706.32, 8309.21]", fillcolor="#4aa5e7"] ;
32 -> 34 ;
35 [label="NumView <= 0.28\ngini = 0.22\nsamples = 627\nvalue = [445.19, 3057.5]", fillcolor="#56abe9"] ;
34 -> 35 ;
36 [label="gini = 0.0\nsamples = 47\nvalue = [0.0, 2625.85]", fillcolor="#399de5"] ;
35 -> 36 ;
37 [label="gini = 0.5\nsamples = 580\nvalue = [445.19, 431.65]", fillcolor="#fefbf9"] ;
35 -> 37 ;
38 [label="NumCart <= 0.72\ngini = 0.09\nsamples = 410\nvalue = [261.13, 5251.71]", fillcolor="#43a2e6"] ;
34 -> 38 ;
39 [label="gini = 0.09\nsamples = 408\nvalue = [260.12, 5251.71]", fillcolor="#43a2e6"] ;
38 -> 39 ;
40 [label="gini = -0.0\nsamples = 2\nvalue = [1.01, 0.0]", fillcolor="#e58139"] ;
38 -> 40 ;
}